digraph Tree {
node [shape=box] ;
0 [label="X[2] <= 6.66\nmse = 72.71\nsamples = 254\nvalue = 22.233"] ;
1 [label="X[2] <= 4.01\nmse = 69.71\nsamples = 97\nvalue = 28.391"] ;
0 -> 1 [labeldistance=2.5, labelangle=45, headlabel="True"] ;
2 [label="mse = 77.574\nsamples = 45\nvalue = 31.89"] ;
1 -> 2 ;
3 [label="mse = 39.673\nsamples = 52\nvalue = 25.076"] ;
1 -> 3 ;
4 [label="X[0] <= 9.286\nmse = 39.846\nsamples = 157\nvalue = 18.673"] ;
0 -> 4 [labeldistance=2.5, labelangle=-45, headlabel="False"] ;
5 [label="mse = 31.56\nsamples = 129\nvalue = 20.256"] ;
4 -> 5 ;
6 [label="mse = 13.997\nsamples = 28\nvalue = 11.446"] ;
4 -> 6 ;
}